genomestart 2
trait 1 0.1 0 0 0 0 0 0 0
node 1 0 1 1
node 2 0 1 1
node 3 0 1 1
node 4 0 1 1
node 5 0 1 1
node 6 0 1 1
node 7 0 1 1 
node 8 0 1 1  
node 9 0 0 2
node 10 0 0 2
node 11 0 0 2
node 12 0 0 2
node 13 0 0 2
node 14 0 1 3
node 15 1 0 0
node 16 1 0 0
node 17 1 0 0
node 18 1 0 0
gene 1 14 9 0.0 0 1 0 1
gene 1 14 10 0.0 0 2 0 1
gene 1 14 11 0.0 0 3 0 1
gene 1 14 12 0.0 0 4 0 1
gene 1 14 13 0.0 0 5 0 1
gene 1 1 15 0.0 0 6 0 1
gene 1 2 15 0.0 0 7 0 1
gene 1 3 15 0.0 0 8 0 1
gene 1 4 15 0.0 0 9 0 1
gene 1 5 15 0.0 0 10 0 1
gene 1 6 15 0.0 0 11 0 1
gene 1 7 15 0.0 0 12 0 1
gene 1 8 15 0.0 0 13 0 1
gene 1 1 16 0.0 0 14 0 1
gene 1 2 16 0.0 0 15 0 1
gene 1 3 16 0.0 0 16 0 1
gene 1 4 16 0.0 0 17 0 1
gene 1 5 16 0.0 0 18 0 1
gene 1 6 16 0.0 0 19 0 1
gene 1 7 16 0.0 0 20 0 1
gene 1 8 16 0.0 0 21 0 1
gene 1 1 17 0.0 0 22 0 1
gene 1 2 17 0.0 0 23 0 1
gene 1 3 17 0.0 0 24 0 1
gene 1 4 17 0.0 0 25 0 1
gene 1 5 17 0.0 0 26 0 1
gene 1 6 17 0.0 0 27 0 1
gene 1 7 17 0.0 0 28 0 1
gene 1 8 17 0.0 0 29 0 1
gene 1 1 18 0.0 0 30 0 1
gene 1 2 18 0.0 0 31 0 1
gene 1 3 18 0.0 0 32 0 1
gene 1 4 18 0.0 0 33 0 1
gene 1 5 18 0.0 0 34 0 1
gene 1 6 18 0.0 0 35 0 1
gene 1 7 18 0.0 0 36 0 1
gene 1 8 18 0.0 0 37 0 1
gene 1 15 9 0.0 0 38 0 1
gene 1 15 10 0.0 0 39 0 1
gene 1 15 11 0.0 0 40 0 1
gene 1 15 12 0.0 0 41 0 1
gene 1 15 13 0.0 0 42 0 1
gene 1 16 9 0.0 0 43 0 1
gene 1 16 10 0.0 0 44 0 1
gene 1 16 11 0.0 0 45 0 1
gene 1 16 12 0.0 0 46 0 1
gene 1 16 13 0.0 0 47 0 1
gene 1 17 9 0.0 0 48 0 1
gene 1 17 10 0.0 0 49 0 1
gene 1 17 11 0.0 0 50 0 1
gene 1 17 12 0.0 0 51 0 1
gene 1 17 13 0.0 0 52 0 1
gene 1 18 9 0.0 0 53 0 1
gene 1 18 10 0.0 0 54 0 1
gene 1 18 11 0.0 0 55 0 1
gene 1 18 12 0.0 0 56 0 1
gene 1 18 13 0.0 0 57 0 1
genomeend 2








